<?xml version="1.0"?>
<opencv_storage>
<!-- Created using Computer Vision Toolbox(tm) for MATLAB(R) -->
<!-- Version 9.7.0.1190202 (R2019b) -->
<!-- Compatible with OpenCV 3.4 -->
<cascade>
  <stageType>BOOST</stageType>
  <featureType>HOG</featureType>
  <height>49</height>
  <width>32</width>
  <stageParams>
    <boostType>GAB</boostType>
    <minHitRate>9.9500000476837158e-01</minHitRate>
    <maxFalseAlarm>6.9999998807907104e-01</maxFalseAlarm>
    <weightTrimRate>9.4999999999999996e-01</weightTrimRate>
    <maxDepth>1</maxDepth>
    <maxWeakCount>100</maxWeakCount></stageParams>
  <featureParams>
    <maxCatCount>0</maxCatCount>
    <featSize>36</featSize></featureParams>
  <stageNum>4</stageNum>
  <stages>
    <!-- stage 0 -->
    <_>
      <maxWeakCount>2</maxWeakCount>
      <stageThreshold>-1.8367475271224976e-01</stageThreshold>
      <weakClassifiers>
        <_>
          <internalNodes>
            0 -1 4 2.1663570776581764e-02</internalNodes>
          <leafValues>
            7.5000000000000000e-01 -9.6363633871078491e-01</leafValues></_>
        <_>
          <internalNodes>
            0 -1 3 2.0931590348482132e-02</internalNodes>
          <leafValues>
            8.1422662734985352e-01 -9.3367475271224976e-01</leafValues></_></weakClassifiers></_>
    <!-- stage 1 -->
    <_>
      <maxWeakCount>2</maxWeakCount>
      <stageThreshold>-1.2787321209907532e-01</stageThreshold>
      <weakClassifiers>
        <_>
          <internalNodes>
            0 -1 8 1.9152820110321045e-02</internalNodes>
          <leafValues>
            9.6078431606292725e-01 -8.6991870403289795e-01</leafValues></_>
        <_>
          <internalNodes>
            0 -1 7 2.6578109711408615e-02</internalNodes>
          <leafValues>
            7.4204546213150024e-01 -9.6674239635467529e-01</leafValues></_></weakClassifiers></_>
    <!-- stage 2 -->
    <_>
      <maxWeakCount>3</maxWeakCount>
      <stageThreshold>-8.2306241989135742e-01</stageThreshold>
      <weakClassifiers>
        <_>
          <internalNodes>
            0 -1 5 2.7100097388029099e-02</internalNodes>
          <leafValues>
            -9.0990990400314331e-01 6.8253970146179199e-01</leafValues></_>
        <_>
          <internalNodes>
            0 -1 0 1.6505159437656403e-02</internalNodes>
          <leafValues>
            7.3319244384765625e-01 -7.5519090890884399e-01</leafValues></_>
        <_>
          <internalNodes>
            0 -1 1 2.2509993985295296e-02</internalNodes>
          <leafValues>
            -6.3485038280487061e-01 8.4203845262527466e-01</leafValues></_></weakClassifiers></_>
    <!-- stage 3 -->
    <_>
      <maxWeakCount>2</maxWeakCount>
      <stageThreshold>-3.9999812841415405e-01</stageThreshold>
      <weakClassifiers>
        <_>
          <internalNodes>
            0 -1 6 2.5400385260581970e-02</internalNodes>
          <leafValues>
            -7.2131145000457764e-01 5.7692307233810425e-01</leafValues></_>
        <_>
          <internalNodes>
            0 -1 2 2.8203886002302170e-02</internalNodes>
          <leafValues>
            4.3669912219047546e-01 -9.7692120075225830e-01</leafValues></_></weakClassifiers></_></stages>
  <features>
    <_>
      <rect>
        0 16 8 8 31</rect></_>
    <_>
      <rect>
        4 0 8 8 2</rect></_>
    <_>
      <rect>
        4 4 8 8 31</rect></_>
    <_>
      <rect>
        12 32 8 8 8</rect></_>
    <_>
      <rect>
        0 4 8 16 35</rect></_>
    <_>
      <rect>
        0 8 8 16 0</rect></_>
    <_>
      <rect>
        8 16 8 16 29</rect></_>
    <_>
      <rect>
        12 0 8 16 22</rect></_>
    <_>
      <rect>
        16 0 8 16 26</rect></_></features></cascade>
</opencv_storage>
